digraph Tree {
node [shape=box] ;
0 [label="X[1] <= 0.5\ngini = 0.469\nsamples = 712\nvalue = [444, 268]"] ;
1 [label="X[0] <= 2.5\ngini = 0.39\nsamples = 252\nvalue = [67, 185]"] ;
0 -> 1 [labeldistance=2.5, labelangle=45, headlabel="True"] ;
2 [label="X[2] <= 2.5\ngini = 0.1\nsamples = 133\nvalue = [7, 126]"] ;
1 -> 2 ;
3 [label="gini = 0.0\nsamples = 1\nvalue = [1, 0]"] ;
2 -> 3 ;
4 [label="X[5] <= 26.125\ngini = 0.087\nsamples = 132\nvalue = [6, 126]"] ;
2 -> 4 ;
5 [label="X[2] <= 55.5\ngini = 0.21\nsamples = 42\nvalue = [5, 37]"] ;
4 -> 5 ;
6 [label="X[3] <= 0.5\ngini = 0.176\nsamples = 41\nvalue = [4, 37]"] ;
5 -> 6 ;
7 [label="X[2] <= 24.5\ngini = 0.064\nsamples = 30\nvalue = [1, 29]"] ;
6 -> 7 ;
8 [label="X[2] <= 22.5\ngini = 0.219\nsamples = 8\nvalue = [1, 7]"] ;
7 -> 8 ;
9 [label="gini = 0.0\nsamples = 6\nvalue = [0, 6]"] ;
8 -> 9 ;
10 [label="gini = 0.5\nsamples = 2\nvalue = [1, 1]"] ;
8 -> 10 ;
11 [label="gini = 0.0\nsamples = 22\nvalue = [0, 22]"] ;
7 -> 11 ;
12 [label="X[5] <= 22.0\ngini = 0.397\nsamples = 11\nvalue = [3, 8]"] ;
6 -> 12 ;
13 [label="gini = 0.0\nsamples = 1\nvalue = [1, 0]"] ;
12 -> 13 ;
14 [label="X[4] <= 0.5\ngini = 0.32\nsamples = 10\nvalue = [2, 8]"] ;
12 -> 14 ;
15 [label="X[2] <= 43.0\ngini = 0.219\nsamples = 8\nvalue = [1, 7]"] ;
14 -> 15 ;
16 [label="gini = 0.0\nsamples = 7\nvalue = [0, 7]"] ;
15 -> 16 ;
17 [label="gini = 0.0\nsamples = 1\nvalue = [1, 0]"] ;
15 -> 17 ;
18 [label="X[4] <= 2.0\ngini = 0.5\nsamples = 2\nvalue = [1, 1]"] ;
14 -> 18 ;
19 [label="gini = 0.0\nsamples = 1\nvalue = [1, 0]"] ;
18 -> 19 ;
20 [label="gini = 0.0\nsamples = 1\nvalue = [0, 1]"] ;
18 -> 20 ;
21 [label="gini = 0.0\nsamples = 1\nvalue = [1, 0]"] ;
5 -> 21 ;
22 [label="X[4] <= 1.5\ngini = 0.022\nsamples = 90\nvalue = [1, 89]"] ;
4 -> 22 ;
23 [label="gini = 0.0\nsamples = 74\nvalue = [0, 74]"] ;
22 -> 23 ;
24 [label="X[2] <= 24.5\ngini = 0.117\nsamples = 16\nvalue = [1, 15]"] ;
22 -> 24 ;
25 [label="gini = 0.0\nsamples = 11\nvalue = [0, 11]"] ;
24 -> 25 ;
26 [label="X[2] <= 28.0\ngini = 0.32\nsamples = 5\nvalue = [1, 4]"] ;
24 -> 26 ;
27 [label="gini = 0.0\nsamples = 1\nvalue = [1, 0]"] ;
26 -> 27 ;
28 [label="gini = 0.0\nsamples = 4\nvalue = [0, 4]"] ;
26 -> 28 ;
29 [label="X[4] <= 1.5\ngini = 0.5\nsamples = 119\nvalue = [60, 59]"] ;
1 -> 29 ;
30 [label="X[5] <= 80.833\ngini = 0.49\nsamples = 91\nvalue = [39, 52]"] ;
29 -> 30 ;
31 [label="X[5] <= 76.812\ngini = 0.458\nsamples = 62\nvalue = [22, 40]"] ;
30 -> 31 ;
32 [label="X[2] <= 40.0\ngini = 0.486\nsamples = 53\nvalue = [22, 31]"] ;
31 -> 32 ;
33 [label="X[2] <= 21.5\ngini = 0.477\nsamples = 51\nvalue = [20, 31]"] ;
32 -> 33 ;
34 [label="X[5] <= 46.684\ngini = 0.486\nsamples = 12\nvalue = [7, 5]"] ;
33 -> 34 ;
35 [label="X[4] <= 0.5\ngini = 0.42\nsamples = 10\nvalue = [7, 3]"] ;
34 -> 35 ;
36 [label="X[2] <= 20.5\ngini = 0.245\nsamples = 7\nvalue = [6, 1]"] ;
35 -> 36 ;
37 [label="gini = 0.0\nsamples = 5\nvalue = [5, 0]"] ;
36 -> 37 ;
38 [label="X[5] <= 7.7\ngini = 0.5\nsamples = 2\nvalue = [1, 1]"] ;
36 -> 38 ;
39 [label="gini = 0.0\nsamples = 1\nvalue = [0, 1]"] ;
38 -> 39 ;
40 [label="gini = 0.0\nsamples = 1\nvalue = [1, 0]"] ;
38 -> 40 ;
41 [label="X[5] <= 18.888\ngini = 0.444\nsamples = 3\nvalue = [1, 2]"] ;
35 -> 41 ;
42 [label="gini = 0.0\nsamples = 2\nvalue = [0, 2]"] ;
41 -> 42 ;
43 [label="gini = 0.0\nsamples = 1\nvalue = [1, 0]"] ;
41 -> 43 ;
44 [label="gini = 0.0\nsamples = 2\nvalue = [0, 2]"] ;
34 -> 44 ;
45 [label="X[5] <= 7.85\ngini = 0.444\nsamples = 39\nvalue = [13, 26]"] ;
33 -> 45 ;
46 [label="X[2] <= 29.25\ngini = 0.245\nsamples = 14\nvalue = [2, 12]"] ;
45 -> 46 ;
47 [label="X[2] <= 25.5\ngini = 0.142\nsamples = 13\nvalue = [1, 12]"] ;
46 -> 47 ;
48 [label="gini = 0.0\nsamples = 4\nvalue = [0, 4]"] ;
47 -> 48 ;
49 [label="X[5] <= 7.487\ngini = 0.198\nsamples = 9\nvalue = [1, 8]"] ;
47 -> 49 ;
50 [label="gini = 0.0\nsamples = 1\nvalue = [0, 1]"] ;
49 -> 50 ;
51 [label="gini = 0.219\nsamples = 8\nvalue = [1, 7]"] ;
49 -> 51 ;
52 [label="gini = 0.0\nsamples = 1\nvalue = [1, 0]"] ;
46 -> 52 ;
53 [label="X[5] <= 10.663\ngini = 0.493\nsamples = 25\nvalue = [11, 14]"] ;
45 -> 53 ;
54 [label="X[2] <= 25.5\ngini = 0.408\nsamples = 7\nvalue = [5, 2]"] ;
53 -> 54 ;
55 [label="gini = 0.0\nsamples = 3\nvalue = [3, 0]"] ;
54 -> 55 ;
56 [label="X[5] <= 7.988\ngini = 0.5\nsamples = 4\nvalue = [2, 2]"] ;
54 -> 56 ;
57 [label="gini = 0.0\nsamples = 2\nvalue = [0, 2]"] ;
56 -> 57 ;
58 [label="gini = 0.0\nsamples = 2\nvalue = [2, 0]"] ;
56 -> 58 ;
59 [label="X[5] <= 74.292\ngini = 0.444\nsamples = 18\nvalue = [6, 12]"] ;
53 -> 59 ;
60 [label="X[4] <= 0.5\ngini = 0.415\nsamples = 17\nvalue = [5, 12]"] ;
59 -> 60 ;
61 [label="X[5] <= 15.975\ngini = 0.298\nsamples = 11\nvalue = [2, 9]"] ;
60 -> 61 ;
62 [label="gini = 0.0\nsamples = 5\nvalue = [0, 5]"] ;
61 -> 62 ;
63 [label="X[5] <= 20.625\ngini = 0.444\nsamples = 6\nvalue = [2, 4]"] ;
61 -> 63 ;
64 [label="X[2] <= 27.0\ngini = 0.444\nsamples = 3\nvalue = [2, 1]"] ;
63 -> 64 ;
65 [label="gini = 0.0\nsamples = 1\nvalue = [1, 0]"] ;
64 -> 65 ;
66 [label="X[5] <= 17.05\ngini = 0.5\nsamples = 2\nvalue = [1, 1]"] ;
64 -> 66 ;
67 [label="gini = 0.0\nsamples = 1\nvalue = [0, 1]"] ;
66 -> 67 ;
68 [label="gini = 0.0\nsamples = 1\nvalue = [1, 0]"] ;
66 -> 68 ;
69 [label="gini = 0.0\nsamples = 3\nvalue = [0, 3]"] ;
63 -> 69 ;
70 [label="X[2] <= 27.5\ngini = 0.5\nsamples = 6\nvalue = [3, 3]"] ;
60 -> 70 ;
71 [label="gini = 0.0\nsamples = 1\nvalue = [0, 1]"] ;
70 -> 71 ;
72 [label="X[5] <= 17.875\ngini = 0.48\nsamples = 5\nvalue = [3, 2]"] ;
70 -> 72 ;
73 [label="gini = 0.0\nsamples = 2\nvalue = [2, 0]"] ;
72 -> 73 ;
74 [label="X[2] <= 30.5\ngini = 0.444\nsamples = 3\nvalue = [1, 2]"] ;
72 -> 74 ;
75 [label="gini = 0.0\nsamples = 1\nvalue = [1, 0]"] ;
74 -> 75 ;
76 [label="gini = 0.0\nsamples = 2\nvalue = [0, 2]"] ;
74 -> 76 ;
77 [label="gini = 0.0\nsamples = 1\nvalue = [1, 0]"] ;
59 -> 77 ;
78 [label="gini = 0.0\nsamples = 2\nvalue = [2, 0]"] ;
32 -> 78 ;
79 [label="gini = 0.0\nsamples = 9\nvalue = [0, 9]"] ;
31 -> 79 ;
80 [label="X[2] <= 7.0\ngini = 0.485\nsamples = 29\nvalue = [17, 12]"] ;
30 -> 80 ;
81 [label="X[5] <= 107.979\ngini = 0.32\nsamples = 5\nvalue = [1, 4]"] ;
80 -> 81 ;
82 [label="gini = 0.0\nsamples = 1\nvalue = [1, 0]"] ;
81 -> 82 ;
83 [label="gini = 0.0\nsamples = 4\nvalue = [0, 4]"] ;
81 -> 83 ;
84 [label="X[4] <= 0.5\ngini = 0.444\nsamples = 24\nvalue = [16, 8]"] ;
80 -> 84 ;
85 [label="X[5] <= 86.729\ngini = 0.492\nsamples = 16\nvalue = [9, 7]"] ;
84 -> 85 ;
86 [label="gini = 0.0\nsamples = 2\nvalue = [2, 0]"] ;
85 -> 86 ;
87 [label="X[5] <= 128.48\ngini = 0.5\nsamples = 14\nvalue = [7, 7]"] ;
85 -> 87 ;
88 [label="X[5] <= 98.396\ngini = 0.48\nsamples = 10\nvalue = [4, 6]"] ;
87 -> 88 ;
89 [label="X[2] <= 16.5\ngini = 0.5\nsamples = 8\nvalue = [4, 4]"] ;
88 -> 89 ;
90 [label="gini = 0.0\nsamples = 1\nvalue = [1, 0]"] ;
89 -> 90 ;
91 [label="X[5] <= 97.125\ngini = 0.49\nsamples = 7\nvalue = [3, 4]"] ;
89 -> 91 ;
92 [label="X[2] <= 28.5\ngini = 0.444\nsamples = 6\nvalue = [2, 4]"] ;
91 -> 92 ;
93 [label="gini = 0.0\nsamples = 2\nvalue = [0, 2]"] ;
92 -> 93 ;
94 [label="X[5] <= 89.166\ngini = 0.5\nsamples = 4\nvalue = [2, 2]"] ;
92 -> 94 ;
95 [label="gini = 0.0\nsamples = 1\nvalue = [0, 1]"] ;
94 -> 95 ;
96 [label="X[2] <= 50.0\ngini = 0.444\nsamples = 3\nvalue = [2, 1]"] ;
94 -> 96 ;
97 [label="gini = 0.0\nsamples = 2\nvalue = [2, 0]"] ;
96 -> 97 ;
98 [label="gini = 0.0\nsamples = 1\nvalue = [0, 1]"] ;
96 -> 98 ;
99 [label="gini = 0.0\nsamples = 1\nvalue = [1, 0]"] ;
91 -> 99 ;
100 [label="gini = 0.0\nsamples = 2\nvalue = [0, 2]"] ;
88 -> 100 ;
101 [label="X[2] <= 16.0\ngini = 0.375\nsamples = 4\nvalue = [3, 1]"] ;
87 -> 101 ;
102 [label="X[2] <= 14.75\ngini = 0.5\nsamples = 2\nvalue = [1, 1]"] ;
101 -> 102 ;
103 [label="gini = 0.0\nsamples = 1\nvalue = [1, 0]"] ;
102 -> 103 ;
104 [label="gini = 0.0\nsamples = 1\nvalue = [0, 1]"] ;
102 -> 104 ;
105 [label="gini = 0.0\nsamples = 2\nvalue = [2, 0]"] ;
101 -> 105 ;
106 [label="X[5] <= 188.02\ngini = 0.219\nsamples = 8\nvalue = [7, 1]"] ;
84 -> 106 ;
107 [label="gini = 0.0\nsamples = 4\nvalue = [4, 0]"] ;
106 -> 107 ;
108 [label="X[3] <= 2.0\ngini = 0.375\nsamples = 4\nvalue = [3, 1]"] ;
106 -> 108 ;
109 [label="gini = 0.0\nsamples = 1\nvalue = [0, 1]"] ;
108 -> 109 ;
110 [label="gini = 0.0\nsamples = 3\nvalue = [3, 0]"] ;
108 -> 110 ;
111 [label="X[5] <= 154.938\ngini = 0.375\nsamples = 28\nvalue = [21, 7]"] ;
29 -> 111 ;
112 [label="X[5] <= 22.738\ngini = 0.236\nsamples = 22\nvalue = [19, 3]"] ;
111 -> 112 ;
113 [label="X[2] <= 26.0\ngini = 0.48\nsamples = 5\nvalue = [2, 3]"] ;
112 -> 113 ;
114 [label="gini = 0.0\nsamples = 3\nvalue = [0, 3]"] ;
113 -> 114 ;
115 [label="gini = 0.0\nsamples = 2\nvalue = [2, 0]"] ;
113 -> 115 ;
116 [label="gini = 0.0\nsamples = 17\nvalue = [17, 0]"] ;
112 -> 116 ;
117 [label="X[2] <= 39.5\ngini = 0.444\nsamples = 6\nvalue = [2, 4]"] ;
111 -> 117 ;
118 [label="gini = 0.0\nsamples = 4\nvalue = [0, 4]"] ;
117 -> 118 ;
119 [label="gini = 0.0\nsamples = 2\nvalue = [2, 0]"] ;
117 -> 119 ;
120 [label="X[5] <= 522.083\ngini = 0.296\nsamples = 460\nvalue = [377, 83]"] ;
0 -> 120 [labeldistance=2.5, labelangle=-45, headlabel="False"] ;
121 [label="X[2] <= 3.5\ngini = 0.269\nsamples = 443\nvalue = [372, 71]"] ;
120 -> 121 ;
122 [label="X[3] <= 2.5\ngini = 0.426\nsamples = 13\nvalue = [4, 9]"] ;
121 -> 122 ;
123 [label="gini = 0.0\nsamples = 8\nvalue = [0, 8]"] ;
122 -> 123 ;
124 [label="X[2] <= 2.5\ngini = 0.32\nsamples = 5\nvalue = [4, 1]"] ;
122 -> 124 ;
125 [label="gini = 0.0\nsamples = 4\nvalue = [4, 0]"] ;
124 -> 125 ;
126 [label="gini = 0.0\nsamples = 1\nvalue = [0, 1]"] ;
124 -> 126 ;
127 [label="X[0] <= 1.5\ngini = 0.247\nsamples = 430\nvalue = [368, 62]"] ;
121 -> 127 ;
128 [label="X[5] <= 37.0\ngini = 0.422\nsamples = 86\nvalue = [60, 26]"] ;
127 -> 128 ;
129 [label="X[5] <= 26.275\ngini = 0.491\nsamples = 37\nvalue = [21, 16]"] ;
128 -> 129 ;
130 [label="gini = 0.0\nsamples = 7\nvalue = [7, 0]"] ;
129 -> 130 ;
131 [label="X[2] <= 53.5\ngini = 0.498\nsamples = 30\nvalue = [14, 16]"] ;
129 -> 131 ;
132 [label="X[4] <= 0.5\ngini = 0.454\nsamples = 23\nvalue = [8, 15]"] ;
131 -> 132 ;
133 [label="X[2] <= 46.75\ngini = 0.434\nsamples = 22\nvalue = [7, 15]"] ;
132 -> 133 ;
134 [label="X[2] <= 45.25\ngini = 0.465\nsamples = 19\nvalue = [7, 12]"] ;
133 -> 134 ;
135 [label="X[5] <= 35.25\ngini = 0.444\nsamples = 18\nvalue = [6, 12]"] ;
134 -> 135 ;
136 [label="X[5] <= 33.0\ngini = 0.469\nsamples = 16\nvalue = [6, 10]"] ;
135 -> 136 ;
137 [label="X[2] <= 31.0\ngini = 0.444\nsamples = 15\nvalue = [5, 10]"] ;
136 -> 137 ;
138 [label="X[2] <= 28.5\ngini = 0.48\nsamples = 10\nvalue = [4, 6]"] ;
137 -> 138 ;
139 [label="X[5] <= 30.75\ngini = 0.375\nsamples = 8\nvalue = [2, 6]"] ;
138 -> 139 ;
140 [label="X[5] <= 28.125\ngini = 0.245\nsamples = 7\nvalue = [1, 6]"] ;
139 -> 140 ;
141 [label="gini = 0.444\nsamples = 3\nvalue = [1, 2]"] ;
140 -> 141 ;
142 [label="gini = 0.0\nsamples = 4\nvalue = [0, 4]"] ;
140 -> 142 ;
143 [label="gini = 0.0\nsamples = 1\nvalue = [1, 0]"] ;
139 -> 143 ;
144 [label="gini = 0.0\nsamples = 2\nvalue = [2, 0]"] ;
138 -> 144 ;
145 [label="X[2] <= 42.5\ngini = 0.32\nsamples = 5\nvalue = [1, 4]"] ;
137 -> 145 ;
146 [label="gini = 0.0\nsamples = 3\nvalue = [0, 3]"] ;
145 -> 146 ;
147 [label="gini = 0.5\nsamples = 2\nvalue = [1, 1]"] ;
145 -> 147 ;
148 [label="gini = 0.0\nsamples = 1\nvalue = [1, 0]"] ;
136 -> 148 ;
149 [label="gini = 0.0\nsamples = 2\nvalue = [0, 2]"] ;
135 -> 149 ;
150 [label="gini = 0.0\nsamples = 1\nvalue = [1, 0]"] ;
134 -> 150 ;
151 [label="gini = 0.0\nsamples = 3\nvalue = [0, 3]"] ;
133 -> 151 ;
152 [label="gini = 0.0\nsamples = 1\nvalue = [1, 0]"] ;
132 -> 152 ;
153 [label="X[5] <= 34.5\ngini = 0.245\nsamples = 7\nvalue = [6, 1]"] ;
131 -> 153 ;
154 [label="gini = 0.0\nsamples = 6\nvalue = [6, 0]"] ;
153 -> 154 ;
155 [label="gini = 0.0\nsamples = 1\nvalue = [0, 1]"] ;
153 -> 155 ;
156 [label="X[2] <= 17.5\ngini = 0.325\nsamples = 49\nvalue = [39, 10]"] ;
128 -> 156 ;
157 [label="gini = 0.0\nsamples = 2\nvalue = [0, 2]"] ;
156 -> 157 ;
158 [label="X[2] <= 39.0\ngini = 0.282\nsamples = 47\nvalue = [39, 8]"] ;
156 -> 158 ;
159 [label="X[2] <= 29.5\ngini = 0.384\nsamples = 27\nvalue = [20, 7]"] ;
158 -> 159 ;
160 [label="X[3] <= 0.5\ngini = 0.117\nsamples = 16\nvalue = [15, 1]"] ;
159 -> 160 ;
161 [label="gini = 0.0\nsamples = 12\nvalue = [12, 0]"] ;
160 -> 161 ;
162 [label="X[2] <= 23.0\ngini = 0.375\nsamples = 4\nvalue = [3, 1]"] ;
160 -> 162 ;
163 [label="gini = 0.0\nsamples = 3\nvalue = [3, 0]"] ;
162 -> 163 ;
164 [label="gini = 0.0\nsamples = 1\nvalue = [0, 1]"] ;
162 -> 164 ;
165 [label="X[5] <= 55.05\ngini = 0.496\nsamples = 11\nvalue = [5, 6]"] ;
159 -> 165 ;
166 [label="gini = 0.0\nsamples = 3\nvalue = [3, 0]"] ;
165 -> 166 ;
167 [label="X[5] <= 177.187\ngini = 0.375\nsamples = 8\nvalue = [2, 6]"] ;
165 -> 167 ;
168 [label="X[2] <= 33.5\ngini = 0.48\nsamples = 5\nvalue = [2, 3]"] ;
167 -> 168 ;
169 [label="gini = 0.0\nsamples = 1\nvalue = [0, 1]"] ;
168 -> 169 ;
170 [label="X[5] <= 84.425\ngini = 0.5\nsamples = 4\nvalue = [2, 2]"] ;
168 -> 170 ;
171 [label="gini = 0.0\nsamples = 1\nvalue = [1, 0]"] ;
170 -> 171 ;
172 [label="X[4] <= 0.5\ngini = 0.444\nsamples = 3\nvalue = [1, 2]"] ;
170 -> 172 ;
173 [label="gini = 0.0\nsamples = 1\nvalue = [0, 1]"] ;
172 -> 173 ;
174 [label="X[2] <= 37.0\ngini = 0.5\nsamples = 2\nvalue = [1, 1]"] ;
172 -> 174 ;
175 [label="gini = 0.0\nsamples = 1\nvalue = [0, 1]"] ;
174 -> 175 ;
176 [label="gini = 0.0\nsamples = 1\nvalue = [1, 0]"] ;
174 -> 176 ;
177 [label="gini = 0.0\nsamples = 3\nvalue = [0, 3]"] ;
167 -> 177 ;
178 [label="X[2] <= 59.0\ngini = 0.095\nsamples = 20\nvalue = [19, 1]"] ;
158 -> 178 ;
179 [label="gini = 0.0\nsamples = 15\nvalue = [15, 0]"] ;
178 -> 179 ;
180 [label="X[2] <= 62.0\ngini = 0.32\nsamples = 5\nvalue = [4, 1]"] ;
178 -> 180 ;
181 [label="gini = 0.0\nsamples = 1\nvalue = [0, 1]"] ;
180 -> 181 ;
182 [label="gini = 0.0\nsamples = 4\nvalue = [4, 0]"] ;
180 -> 182 ;
183 [label="X[5] <= 104.896\ngini = 0.187\nsamples = 344\nvalue = [308, 36]"] ;
127 -> 183 ;
184 [label="X[2] <= 9.5\ngini = 0.169\nsamples = 322\nvalue = [292, 30]"] ;
183 -> 184 ;
185 [label="X[3] <= 2.0\ngini = 0.408\nsamples = 7\nvalue = [5, 2]"] ;
184 -> 185 ;
186 [label="gini = 0.0\nsamples = 2\nvalue = [0, 2]"] ;
185 -> 186 ;
187 [label="gini = 0.0\nsamples = 5\nvalue = [5, 0]"] ;
185 -> 187 ;
188 [label="X[4] <= 0.5\ngini = 0.162\nsamples = 315\nvalue = [287, 28]"] ;
184 -> 188 ;
189 [label="X[2] <= 32.5\ngini = 0.176\nsamples = 287\nvalue = [259, 28]"] ;
188 -> 189 ;
190 [label="X[2] <= 28.75\ngini = 0.2\nsamples = 213\nvalue = [189, 24]"] ;
189 -> 190 ;
191 [label="X[5] <= 78.125\ngini = 0.156\nsamples = 187\nvalue = [171, 16]"] ;
190 -> 191 ;
192 [label="X[5] <= 77.688\ngini = 0.187\nsamples = 144\nvalue = [129, 15]"] ;
191 -> 192 ;
193 [label="X[2] <= 20.25\ngini = 0.17\nsamples = 139\nvalue = [126, 13]"] ;
192 -> 193 ;
194 [label="X[5] <= 7.85\ngini = 0.302\nsamples = 27\nvalue = [22, 5]"] ;
193 -> 194 ;
195 [label="gini = 0.0\nsamples = 7\nvalue = [7, 0]"] ;
194 -> 195 ;
196 [label="X[5] <= 8.175\ngini = 0.375\nsamples = 20\nvalue = [15, 5]"] ;
194 -> 196 ;
197 [label="X[3] <= 0.5\ngini = 0.49\nsamples = 7\nvalue = [3, 4]"] ;
196 -> 197 ;
198 [label="X[5] <= 7.988\ngini = 0.5\nsamples = 6\nvalue = [3, 3]"] ;
197 -> 198 ;
199 [label="gini = 0.0\nsamples = 1\nvalue = [1, 0]"] ;
198 -> 199 ;
200 [label="X[2] <= 17.0\ngini = 0.48\nsamples = 5\nvalue = [2, 3]"] ;
198 -> 200 ;
201 [label="gini = 0.5\nsamples = 2\nvalue = [1, 1]"] ;
200 -> 201 ;
202 [label="X[2] <= 18.5\ngini = 0.444\nsamples = 3\nvalue = [1, 2]"] ;
200 -> 202 ;
203 [label="gini = 0.0\nsamples = 1\nvalue = [0, 1]"] ;
202 -> 203 ;
204 [label="gini = 0.5\nsamples = 2\nvalue = [1, 1]"] ;
202 -> 204 ;
205 [label="gini = 0.0\nsamples = 1\nvalue = [0, 1]"] ;
197 -> 205 ;
206 [label="X[5] <= 71.417\ngini = 0.142\nsamples = 13\nvalue = [12, 1]"] ;
196 -> 206 ;
207 [label="gini = 0.0\nsamples = 11\nvalue = [11, 0]"] ;
206 -> 207 ;
208 [label="X[2] <= 19.0\ngini = 0.5\nsamples = 2\nvalue = [1, 1]"] ;
206 -> 208 ;
209 [label="gini = 0.0\nsamples = 1\nvalue = [1, 0]"] ;
208 -> 209 ;
210 [label="gini = 0.0\nsamples = 1\nvalue = [0, 1]"] ;
208 -> 210 ;
211 [label="X[5] <= 7.013\ngini = 0.133\nsamples = 112\nvalue = [104, 8]"] ;
193 -> 211 ;
212 [label="X[2] <= 27.5\ngini = 0.346\nsamples = 9\nvalue = [7, 2]"] ;
211 -> 212 ;
213 [label="gini = 0.0\nsamples = 2\nvalue = [0, 2]"] ;
212 -> 213 ;
214 [label="gini = 0.0\nsamples = 7\nvalue = [7, 0]"] ;
212 -> 214 ;
215 [label="X[5] <= 22.887\ngini = 0.11\nsamples = 103\nvalue = [97, 6]"] ;
211 -> 215 ;
216 [label="X[2] <= 27.5\ngini = 0.071\nsamples = 81\nvalue = [78, 3]"] ;
215 -> 216 ;
217 [label="gini = 0.0\nsamples = 36\nvalue = [36, 0]"] ;
216 -> 217 ;
218 [label="X[0] <= 2.5\ngini = 0.124\nsamples = 45\nvalue = [42, 3]"] ;
216 -> 218 ;
219 [label="X[5] <= 13.25\ngini = 0.32\nsamples = 5\nvalue = [4, 1]"] ;
218 -> 219 ;
220 [label="X[5] <= 11.75\ngini = 0.444\nsamples = 3\nvalue = [2, 1]"] ;
219 -> 220 ;
221 [label="gini = 0.0\nsamples = 1\nvalue = [1, 0]"] ;
220 -> 221 ;
222 [label="gini = 0.5\nsamples = 2\nvalue = [1, 1]"] ;
220 -> 222 ;
223 [label="gini = 0.0\nsamples = 2\nvalue = [2, 0]"] ;
219 -> 223 ;
224 [label="X[5] <= 7.85\ngini = 0.095\nsamples = 40\nvalue = [38, 2]"] ;
218 -> 224 ;
225 [label="X[5] <= 7.763\ngini = 0.198\nsamples = 18\nvalue = [16, 2]"] ;
224 -> 225 ;
226 [label="X[5] <= 7.737\ngini = 0.111\nsamples = 17\nvalue = [16, 1]"] ;
225 -> 226 ;
227 [label="gini = 0.0\nsamples = 6\nvalue = [6, 0]"] ;
226 -> 227 ;
228 [label="X[3] <= 0.5\ngini = 0.165\nsamples = 11\nvalue = [10, 1]"] ;
226 -> 228 ;
229 [label="gini = 0.18\nsamples = 10\nvalue = [9, 1]"] ;
228 -> 229 ;
230 [label="gini = 0.0\nsamples = 1\nvalue = [1, 0]"] ;
228 -> 230 ;
231 [label="gini = 0.0\nsamples = 1\nvalue = [0, 1]"] ;
225 -> 231 ;
232 [label="gini = 0.0\nsamples = 22\nvalue = [22, 0]"] ;
224 -> 232 ;
233 [label="X[5] <= 23.7\ngini = 0.236\nsamples = 22\nvalue = [19, 3]"] ;
215 -> 233 ;
234 [label="gini = 0.0\nsamples = 1\nvalue = [0, 1]"] ;
233 -> 234 ;
235 [label="X[5] <= 72.708\ngini = 0.172\nsamples = 21\nvalue = [19, 2]"] ;
233 -> 235 ;
236 [label="X[5] <= 70.0\ngini = 0.278\nsamples = 12\nvalue = [10, 2]"] ;
235 -> 236 ;
237 [label="gini = 0.0\nsamples = 4\nvalue = [4, 0]"] ;
236 -> 237 ;
238 [label="X[5] <= 71.854\ngini = 0.375\nsamples = 8\nvalue = [6, 2]"] ;
236 -> 238 ;
239 [label="gini = 0.0\nsamples = 1\nvalue = [0, 1]"] ;
238 -> 239 ;
240 [label="X[2] <= 25.0\ngini = 0.245\nsamples = 7\nvalue = [6, 1]"] ;
238 -> 240 ;
241 [label="gini = 0.0\nsamples = 1\nvalue = [1, 0]"] ;
240 -> 241 ;
242 [label="X[2] <= 28.25\ngini = 0.278\nsamples = 6\nvalue = [5, 1]"] ;
240 -> 242 ;
243 [label="gini = 0.32\nsamples = 5\nvalue = [4, 1]"] ;
242 -> 243 ;
244 [label="gini = 0.0\nsamples = 1\nvalue = [1, 0]"] ;
242 -> 244 ;
245 [label="gini = 0.0\nsamples = 9\nvalue = [9, 0]"] ;
235 -> 245 ;
246 [label="X[2] <= 25.5\ngini = 0.48\nsamples = 5\nvalue = [3, 2]"] ;
192 -> 246 ;
247 [label="X[2] <= 21.5\ngini = 0.375\nsamples = 4\nvalue = [3, 1]"] ;
246 -> 247 ;
248 [label="X[2] <= 19.5\ngini = 0.5\nsamples = 2\nvalue = [1, 1]"] ;
247 -> 248 ;
249 [label="gini = 0.0\nsamples = 1\nvalue = [1, 0]"] ;
248 -> 249 ;
250 [label="gini = 0.0\nsamples = 1\nvalue = [0, 1]"] ;
248 -> 250 ;
251 [label="gini = 0.0\nsamples = 2\nvalue = [2, 0]"] ;
247 -> 251 ;
252 [label="gini = 0.0\nsamples = 1\nvalue = [0, 1]"] ;
246 -> 252 ;
253 [label="X[5] <= 85.604\ngini = 0.045\nsamples = 43\nvalue = [42, 1]"] ;
191 -> 253 ;
254 [label="gini = 0.0\nsamples = 27\nvalue = [27, 0]"] ;
253 -> 254 ;
255 [label="X[2] <= 26.5\ngini = 0.117\nsamples = 16\nvalue = [15, 1]"] ;
253 -> 255 ;
256 [label="gini = 0.0\nsamples = 12\nvalue = [12, 0]"] ;
255 -> 256 ;
257 [label="X[2] <= 27.5\ngini = 0.375\nsamples = 4\nvalue = [3, 1]"] ;
255 -> 257 ;
258 [label="gini = 0.0\nsamples = 1\nvalue = [0, 1]"] ;
257 -> 258 ;
259 [label="gini = 0.0\nsamples = 3\nvalue = [3, 0]"] ;
257 -> 259 ;
260 [label="X[0] <= 2.5\ngini = 0.426\nsamples = 26\nvalue = [18, 8]"] ;
190 -> 260 ;
261 [label="X[2] <= 30.5\ngini = 0.198\nsamples = 9\nvalue = [8, 1]"] ;
260 -> 261 ;
262 [label="gini = 0.0\nsamples = 5\nvalue = [5, 0]"] ;
261 -> 262 ;
263 [label="X[5] <= 11.75\ngini = 0.375\nsamples = 4\nvalue = [3, 1]"] ;
261 -> 263 ;
264 [label="gini = 0.0\nsamples = 2\nvalue = [2, 0]"] ;
263 -> 264 ;
265 [label="X[2] <= 31.5\ngini = 0.5\nsamples = 2\nvalue = [1, 1]"] ;
263 -> 265 ;
266 [label="gini = 0.0\nsamples = 1\nvalue = [0, 1]"] ;
265 -> 266 ;
267 [label="gini = 0.0\nsamples = 1\nvalue = [1, 0]"] ;
265 -> 267 ;
268 [label="X[5] <= 87.562\ngini = 0.484\nsamples = 17\nvalue = [10, 7]"] ;
260 -> 268 ;
269 [label="X[2] <= 29.5\ngini = 0.469\nsamples = 16\nvalue = [10, 6]"] ;
268 -> 269 ;
270 [label="X[3] <= 0.5\ngini = 0.48\nsamples = 5\nvalue = [2, 3]"] ;
269 -> 270 ;
271 [label="X[5] <= 8.638\ngini = 0.375\nsamples = 4\nvalue = [1, 3]"] ;
270 -> 271 ;
272 [label="X[5] <= 7.763\ngini = 0.5\nsamples = 2\nvalue = [1, 1]"] ;
271 -> 272 ;
273 [label="gini = 0.0\nsamples = 1\nvalue = [0, 1]"] ;
272 -> 273 ;
274 [label="gini = 0.0\nsamples = 1\nvalue = [1, 0]"] ;
272 -> 274 ;
275 [label="gini = 0.0\nsamples = 2\nvalue = [0, 2]"] ;
271 -> 275 ;
276 [label="gini = 0.0\nsamples = 1\nvalue = [1, 0]"] ;
270 -> 276 ;
277 [label="X[5] <= 7.838\ngini = 0.397\nsamples = 11\nvalue = [8, 3]"] ;
269 -> 277 ;
278 [label="gini = 0.0\nsamples = 3\nvalue = [3, 0]"] ;
277 -> 278 ;
279 [label="X[5] <= 40.896\ngini = 0.469\nsamples = 8\nvalue = [5, 3]"] ;
277 -> 279 ;
280 [label="X[5] <= 8.775\ngini = 0.5\nsamples = 6\nvalue = [3, 3]"] ;
279 -> 280 ;
281 [label="X[2] <= 31.25\ngini = 0.48\nsamples = 5\nvalue = [3, 2]"] ;
280 -> 281 ;
282 [label="gini = 0.0\nsamples = 2\nvalue = [2, 0]"] ;
281 -> 282 ;
283 [label="X[5] <= 7.988\ngini = 0.444\nsamples = 3\nvalue = [1, 2]"] ;
281 -> 283 ;
284 [label="gini = 0.5\nsamples = 2\nvalue = [1, 1]"] ;
283 -> 284 ;
285 [label="gini = 0.0\nsamples = 1\nvalue = [0, 1]"] ;
283 -> 285 ;
286 [label="gini = 0.0\nsamples = 1\nvalue = [0, 1]"] ;
280 -> 286 ;
287 [label="gini = 0.0\nsamples = 2\nvalue = [2, 0]"] ;
279 -> 287 ;
288 [label="gini = 0.0\nsamples = 1\nvalue = [0, 1]"] ;
268 -> 288 ;
289 [label="X[5] <= 13.5\ngini = 0.102\nsamples = 74\nvalue = [70, 4]"] ;
189 -> 289 ;
290 [label="X[5] <= 7.85\ngini = 0.159\nsamples = 46\nvalue = [42, 4]"] ;
289 -> 290 ;
291 [label="gini = 0.0\nsamples = 16\nvalue = [16, 0]"] ;
290 -> 291 ;
292 [label="X[5] <= 7.988\ngini = 0.231\nsamples = 30\nvalue = [26, 4]"] ;
290 -> 292 ;
293 [label="X[3] <= 1.0\ngini = 0.5\nsamples = 4\nvalue = [2, 2]"] ;
292 -> 293 ;
294 [label="X[2] <= 41.5\ngini = 0.444\nsamples = 3\nvalue = [1, 2]"] ;
293 -> 294 ;
295 [label="gini = 0.5\nsamples = 2\nvalue = [1, 1]"] ;
294 -> 295 ;
296 [label="gini = 0.0\nsamples = 1\nvalue = [0, 1]"] ;
294 -> 296 ;
297 [label="gini = 0.0\nsamples = 1\nvalue = [1, 0]"] ;
293 -> 297 ;
298 [label="X[2] <= 59.5\ngini = 0.142\nsamples = 26\nvalue = [24, 2]"] ;
292 -> 298 ;
299 [label="X[5] <= 12.938\ngini = 0.08\nsamples = 24\nvalue = [23, 1]"] ;
298 -> 299 ;
300 [label="gini = 0.0\nsamples = 16\nvalue = [16, 0]"] ;
299 -> 300 ;
301 [label="X[2] <= 40.5\ngini = 0.219\nsamples = 8\nvalue = [7, 1]"] ;
299 -> 301 ;
302 [label="gini = 0.0\nsamples = 3\nvalue = [3, 0]"] ;
301 -> 302 ;
303 [label="X[2] <= 45.0\ngini = 0.32\nsamples = 5\nvalue = [4, 1]"] ;
301 -> 303 ;
304 [label="gini = 0.5\nsamples = 2\nvalue = [1, 1]"] ;
303 -> 304 ;
305 [label="gini = 0.0\nsamples = 3\nvalue = [3, 0]"] ;
303 -> 305 ;
306 [label="X[2] <= 66.0\ngini = 0.5\nsamples = 2\nvalue = [1, 1]"] ;
298 -> 306 ;
307 [label="gini = 0.0\nsamples = 1\nvalue = [0, 1]"] ;
306 -> 307 ;
308 [label="gini = 0.0\nsamples = 1\nvalue = [1, 0]"] ;
306 -> 308 ;
309 [label="gini = 0.0\nsamples = 28\nvalue = [28, 0]"] ;
289 -> 309 ;
310 [label="gini = 0.0\nsamples = 28\nvalue = [28, 0]"] ;
188 -> 310 ;
311 [label="X[5] <= 139.854\ngini = 0.397\nsamples = 22\nvalue = [16, 6]"] ;
183 -> 311 ;
312 [label="gini = 0.0\nsamples = 3\nvalue = [0, 3]"] ;
311 -> 312 ;
313 [label="X[5] <= 193.771\ngini = 0.266\nsamples = 19\nvalue = [16, 3]"] ;
311 -> 313 ;
314 [label="X[5] <= 151.458\ngini = 0.469\nsamples = 8\nvalue = [5, 3]"] ;
313 -> 314 ;
315 [label="gini = 0.0\nsamples = 4\nvalue = [4, 0]"] ;
314 -> 315 ;
316 [label="X[2] <= 15.5\ngini = 0.375\nsamples = 4\nvalue = [1, 3]"] ;
314 -> 316 ;
317 [label="gini = 0.0\nsamples = 1\nvalue = [1, 0]"] ;
316 -> 317 ;
318 [label="gini = 0.0\nsamples = 3\nvalue = [0, 3]"] ;
316 -> 318 ;
319 [label="gini = 0.0\nsamples = 11\nvalue = [11, 0]"] ;
313 -> 319 ;
320 [label="X[2] <= 50.0\ngini = 0.415\nsamples = 17\nvalue = [5, 12]"] ;
120 -> 320 ;
321 [label="X[2] <= 30.0\ngini = 0.245\nsamples = 14\nvalue = [2, 12]"] ;
320 -> 321 ;
322 [label="X[2] <= 27.5\ngini = 0.408\nsamples = 7\nvalue = [2, 5]"] ;
321 -> 322 ;
323 [label="gini = 0.0\nsamples = 4\nvalue = [0, 4]"] ;
322 -> 323 ;
324 [label="X[5] <= 693.333\ngini = 0.444\nsamples = 3\nvalue = [2, 1]"] ;
322 -> 324 ;
325 [label="gini = 0.5\nsamples = 2\nvalue = [1, 1]"] ;
324 -> 325 ;
326 [label="gini = 0.0\nsamples = 1\nvalue = [1, 0]"] ;
324 -> 326 ;
327 [label="gini = 0.0\nsamples = 7\nvalue = [0, 7]"] ;
321 -> 327 ;
328 [label="gini = 0.0\nsamples = 3\nvalue = [3, 0]"] ;
320 -> 328 ;
}
